{
  "model_type": "tabular_kan",
  "labels": [
    "TUP",
    "TLF",
    "TLB",
    "TLR",
    "TLL"
  ],
  "feature_cols": [
    "neck_angle",
    "head_depth_delta",
    "depth_delta",
    "torso_tilt",
    "shoulder_diff",
    "shoulder_width",
    "signed_tilt"
  ],
  "scaler_mean": [
    20.05436780599099,
    -0.2727525942885209,
    -0.0670772741846722,
    9.292712907592977,
    28.960300928002663,
    0.33046038802911737,
    0.02132177432300414
  ],
  "scaler_scale": [
    19.183952817172155,
    0.03082886496204187,
    0.13285818416430234,
    13.21345376413108,
    16.227083644940908,
    0.02048543477244953,
    0.1034709782679715
  ],
  "kan": {
    "grid": [
      -3.0,
      -2.4000000953674316,
      -1.7999999523162842,
      -1.1999999284744263,
      -0.5999999046325684,
      0.0,
      0.5999999046325684,
      1.1999999284744263,
      1.7999999523162842,
      2.4000000953674316,
      3.0
    ],
    "spline_coef": [
      [
        [
          0.0006980350008234382,
          0.006420122925192118,
          0.03146231546998024,
          -0.016904020681977272,
          0.026237918063998222
        ],
        [
          0.013738833367824554,
          -0.021776726469397545,
          -0.007103553041815758,
          -0.02835248038172722,
          0.017920037731528282
        ],
        [
          0.0009978050366044044,
          0.045319829136133194,
          0.02357175387442112,
          -0.008686424233019352,
          -0.027718592435121536
        ],
        [
          -0.44744113087654114,
          0.40337952971458435,
          -0.02711222507059574,
          -0.15253303945064545,
          0.476258784532547
        ],
        [
          0.3716074228286743,
          0.059837229549884796,
          0.03952082246541977,
          -0.3935183584690094,
          0.003433548379689455
        ],
        [
          0.3756033480167389,
          0.0041802809573709965,
          0.06599517911672592,
          0.0006773053901270032,
          -0.2793950140476227
        ],
        [
          -0.005086744204163551,
          -0.16156786680221558,
          -0.11207818984985352,
          0.07032816112041473,
          0.13157996535301208
        ],
        [
          -0.2012997567653656,
          -0.017353883013129234,
          0.29596003890037537,
          0.16479778289794922,
          -0.1537947654724121
        ],
        [
          -0.10376927256584167,
          0.13083651661872864,
          -0.2238430678844452,
          0.3923054039478302,
          -0.5015782713890076
        ],
        [
          -0.43718406558036804,
          0.03703460469841957,
          -0.5354594588279724,
          0.40589097142219543,
          -0.30391204357147217
        ],
        [
          -0.4608864486217499,
          0.3375740051269531,
          -0.5404196381568909,
          0.2991538941860199,
          -0.25373363494873047
        ]
      ],
      [
        [
          -0.3532777726650238,
          0.33915337920188904,
          -0.23143820464611053,
          -0.3112472891807556,
          -0.37630587816238403
        ],
        [
          0.14100179076194763,
          0.2382252961397171,
          -0.38966020941734314,
          -0.33917635679244995,
          -0.5113537907600403
        ],
        [
          0.5595821738243103,
          -0.3646332621574402,
          -0.394715815782547,
          -0.45384731888771057,
          0.39032506942749023
        ],
        [
          0.0598253570497036,
          -0.13740389049053192,
          -0.00765223940834403,
          -0.5324721932411194,
          0.5681805610656738
        ],
        [
          -0.005994680803269148,
          0.4291512668132782,
          -0.15568792819976807,
          -0.4548931121826172,
          0.6422008872032166
        ],
        [
          0.27327272295951843,
          0.04791334271430969,
          -0.25091198086738586,
          -0.03698418289422989,
          -0.13623571395874023
        ],
        [
          0.3322446346282959,
          -0.1415151208639145,
          -0.17954321205615997,
          0.25818032026290894,
          -0.4147942066192627
        ],
        [
          -0.23497571051120758,
          -0.5865612030029297,
          0.03708508238196373,
          0.3352631628513336,
          -0.24994821846485138
        ],
        [
          -0.3426463007926941,
          -0.3010338842868805,
          0.320643812417984,
          0.046356238424777985,
          -0.0655992329120636
        ],
        [
          -0.2418862134218216,
          -0.1265055239200592,
          0.11535509675741196,
          0.3918388783931732,
          -0.40982598066329956
        ],
        [
          -0.5210705399513245,
          0.731055736541748,
          0.059595879167318344,
          0.3329269289970398,
          -0.5106942057609558
        ]
      ],
      [
        [
          -0.6957507133483887,
          1.0539737939834595,
          -0.39924344420433044,
          -1.0659829378128052,
          -1.0517284870147705
        ],
        [
          -0.827993631362915,
          1.0414352416992188,
          -0.505779504776001,
          -0.9098390340805054,
          -1.1712255477905273
        ],
        [
          -1.0531648397445679,
          0.6631982326507568,
          -0.4657612442970276,
          -0.48524487018585205,
          -0.5748386383056641
        ],
        [
          -0.993619978427887,
          0.41323530673980713,
          -0.6931052803993225,
          -0.10760270059108734,
          0.6801129579544067
        ],
        [
          -1.6878583431243896,
          1.5925884246826172,
          -0.9456638693809509,
          0.3250809609889984,
          0.6662263870239258
        ],
        [
          1.0092084407806396,
          -0.2670912444591522,
          -1.1741303205490112,
          0.4596426486968994,
          -0.26000043749809265
        ],
        [
          1.6755027770996094,
          -1.7233301401138306,
          -1.820783257484436,
          -0.2678943872451782,
          -0.5238277316093445
        ],
        [
          -1.662038803100586,
          -1.3300646543502808,
          1.2858141660690308,
          -0.4814647138118744,
          -0.46802109479904175
        ],
        [
          -1.3106790781021118,
          -0.961089015007019,
          1.0713465213775635,
          0.3354073762893677,
          -0.3814193308353424
        ],
        [
          -0.7217234373092651,
          -0.47170954942703247,
          0.5301653146743774,
          -0.06279457360506058,
          -0.1485573947429657
        ],
        [
          -0.33015066385269165,
          -0.33865439891815186,
          0.23621070384979248,
          -0.1383707970380783,
          -0.1191810667514801
        ]
      ],
      [
        [
          0.004164737183600664,
          -0.011553329415619373,
          0.006507170386612415,
          0.005233985371887684,
          -0.01519409567117691
        ],
        [
          -0.04091017693281174,
          -0.030579380691051483,
          0.008094962686300278,
          0.012633655220270157,
          0.0062487125396728516
        ],
        [
          -0.0006698185461573303,
          0.02605590410530567,
          0.009754454717040062,
          0.022672584280371666,
          -0.00710903387516737
        ],
        [
          0.5595789551734924,
          -0.5991544127464294,
          0.21023458242416382,
          -0.733568012714386,
          -0.4834356904029846
        ],
        [
          0.6757468581199646,
          0.6035435795783997,
          0.2639344334602356,
          -0.801292359828949,
          -0.5263001918792725
        ],
        [
          0.4270404875278473,
          0.7166003584861755,
          0.5389218330383301,
          -0.7475930452346802,
          -0.7926495671272278
        ],
        [
          -0.9326475262641907,
          -1.3552851676940918,
          -0.7126762270927429,
          0.7955864667892456,
          0.7309122681617737
        ],
        [
          -0.8645663261413574,
          -0.6313289999961853,
          -0.5057831406593323,
          0.5857703685760498,
          0.3783186972141266
        ],
        [
          -0.474118709564209,
          -0.8744342923164368,
          -0.7611154913902283,
          0.46819713711738586,
          0.4955208897590637
        ],
        [
          -0.3699953556060791,
          -0.016547536477446556,
          -0.9052978754043579,
          0.47414159774780273,
          -0.2931024432182312
        ],
        [
          -0.5469757318496704,
          0.8588201403617859,
          -0.6077946424484253,
          0.44693589210510254,
          -0.36671656370162964
        ]
      ],
      [
        [
          -0.016098065301775932,
          0.010312778875231743,
          -0.014253281988203526,
          0.004391147289425135,
          0.01126678567379713
        ],
        [
          0.0371527224779129,
          0.02087516337633133,
          -0.01727098599076271,
          0.01669648289680481,
          -0.006312255747616291
        ],
        [
          -0.5829359292984009,
          -0.8204070329666138,
          -0.6787093877792358,
          0.6815609931945801,
          -0.5323946475982666
        ],
        [
          -0.07964050769805908,
          -0.4145773649215698,
          -0.3184317648410797,
          0.3832634687423706,
          -0.4008031487464905
        ],
        [
          0.19926078617572784,
          0.50269615650177,
          0.3234185576438904,
          -0.3516041338443756,
          -0.45115426182746887
        ],
        [
          0.5247114300727844,
          0.3525470197200775,
          0.08260216563940048,
          -0.7189940214157104,
          -0.16962961852550507
        ],
        [
          0.2924010455608368,
          -0.18283198773860931,
          -0.026429466903209686,
          0.2165125459432602,
          -0.3566627502441406
        ],
        [
          -0.2557803690433502,
          -0.6012377142906189,
          -0.7569155097007751,
          0.22724545001983643,
          0.180521160364151
        ],
        [
          -0.529691755771637,
          -0.406688392162323,
          0.043918427079916,
          0.23024548590183258,
          0.04063045606017113
        ],
        [
          -0.4227862060070038,
          0.04881437495350838,
          -0.75879967212677,
          0.1641688197851181,
          0.34699103236198425
        ],
        [
          -0.3592095971107483,
          -0.22526812553405762,
          -1.0167618989944458,
          -0.7967551350593567,
          0.5083372592926025
        ]
      ],
      [
        [
          -0.3671058416366577,
          0.18201956152915955,
          0.15291635692119598,
          -0.5698027014732361,
          0.36022236943244934
        ],
        [
          -0.263752818107605,
          0.35575953125953674,
          -0.9475787878036499,
          -0.7890186309814453,
          0.5034284591674805
        ],
        [
          -0.4885348081588745,
          0.4131596088409424,
          0.31118300557136536,
          -0.2916851341724396,
          0.4374679625034332
        ],
        [
          -0.2965376079082489,
          0.26683732867240906,
          0.10274162143468857,
          0.32771140336990356,
          -0.3382128179073334
        ],
        [
          0.3575800955295563,
          -0.09042586386203766,
          -0.021993931382894516,
          0.3022693395614624,
          -0.45102590322494507
        ],
        [
          0.24592262506484985,
          0.15657870471477509,
          0.04219971224665642,
          -0.20637397468090057,
          -0.2574717402458191
        ],
        [
          0.23610660433769226,
          0.05772137641906738,
          -0.1641944795846939,
          -0.46643954515457153,
          0.2782650291919708
        ],
        [
          0.38564226031303406,
          0.05804391950368881,
          -0.4051136076450348,
          0.06960636377334595,
          -0.26627129316329956
        ],
        [
          -0.25883257389068604,
          -0.2569616138935089,
          -0.3428772985935211,
          0.39066317677497864,
          -0.3308434784412384
        ],
        [
          -0.4892401695251465,
          -0.27936235070228577,
          -0.26206621527671814,
          0.3871123194694519,
          -0.3301658630371094
        ],
        [
          -0.38542404770851135,
          -0.020113466307520866,
          -0.21194127202033997,
          0.12650293111801147,
          -0.3432808518409729
        ]
      ],
      [
        [
          -0.5462606549263,
          -1.0097583532333374,
          -0.6960710287094116,
          0.5484755635261536,
          -0.46575045585632324
        ],
        [
          -0.6322077512741089,
          -0.6145286560058594,
          -0.6238463521003723,
          0.610495924949646,
          -0.46058541536331177
        ],
        [
          -0.8732945919036865,
          -0.776814341545105,
          -0.5426220893859863,
          0.7266992330551147,
          -0.646615743637085
        ],
        [
          -0.8430372476577759,
          -1.049007534980774,
          -0.4811638295650482,
          0.7827443480491638,
          -0.5645274519920349
        ],
        [
          0.22917942702770233,
          0.07852839678525925,
          0.5889502167701721,
          -0.8433008193969727,
          -0.4856313467025757
        ],
        [
          0.7078137993812561,
          0.7989560961723328,
          0.14133964478969574,
          -0.7789759635925293,
          -0.6514835953712463
        ],
        [
          0.3173689842224121,
          0.5110742449760437,
          0.4712178707122803,
          -0.8707901239395142,
          -0.20311954617500305
        ],
        [
          -0.7102016806602478,
          -1.2661573886871338,
          -0.6668058633804321,
          -0.7219679355621338,
          0.9799165725708008
        ],
        [
          -0.48164287209510803,
          -0.9466825127601624,
          -0.7818040251731873,
          -0.9993457198143005,
          0.7242312431335449
        ],
        [
          -0.3343726694583893,
          -1.5044218301773071,
          -1.0145138502120972,
          -0.9077958464622498,
          0.5269284248352051
        ],
        [
          -0.3273707330226898,
          -1.201796054840088,
          -1.02961003780365,
          -0.8338910937309265,
          0.4512517750263214
        ]
      ]
    ],
    "linear_weight": [
      [
        0.2173652946949005,
        -0.24580395221710205,
        0.7930172085762024,
        0.04006008058786392,
        -0.6679226160049438,
        -0.1981867104768753,
        0.9736847281455994
      ],
      [
        0.49905407428741455,
        -0.4133802652359009,
        -1.4326363801956177,
        -1.1395193338394165,
        -0.5055582523345947,
        -0.23905684053897858,
        0.6080307364463806
      ],
      [
        -0.06994586437940598,
        -0.003125204239040613,
        1.700864315032959,
        -0.5912317633628845,
        -0.47280746698379517,
        -0.29425862431526184,
        0.6712795495986938
      ],
      [
        0.6283425092697144,
        -0.08543878048658371,
        0.412281334400177,
        0.23490320146083832,
        -0.9850701689720154,
        -0.3372822403907776,
        -5.8438454288989305e-05
      ],
      [
        0.17657049000263214,
        0.09605028480291367,
        -0.03801656886935234,
        0.5560646057128906,
        0.4058050513267517,
        -0.6258312463760376,
        0.9984281063079834
      ]
    ],
    "linear_bias": [
      0.056690849363803864,
      0.11976124346256256,
      -0.03642349690198898,
      0.20573678612709045,
      -0.21076399087905884
    ],
    "bias": [
      0.056690849363803864,
      0.11976124346256256,
      -0.03642349690198898,
      0.20573678612709045,
      -0.21076399087905884
    ]
  },
  "runtime": {
    "target_subjects": [
      7,
      8,
      9
    ],
    "calibration_source": "TUP",
    "special_subjects": [
      7,
      8,
      9
    ]
  }
}